<?xml version="1.0"?>
<opencv_storage>
<cascade>
  <stageType>BOOST</stageType>
  <featureType>HAAR</featureType>
  <height>12</height>
  <width>16</width>
  <stageParams>
    <boostType>GAB</boostType>
    <minHitRate>9.9500000476837158e-01</minHitRate>
    <maxFalseAlarm>5.0000000000000000e-01</maxFalseAlarm>
    <weightTrimRate>9.4999998807907104e-01</weightTrimRate>
    <maxDepth>1</maxDepth>
    <maxWeakCount>100</maxWeakCount></stageParams>
  <featureParams>
    <maxCatCount>0</maxCatCount>
    <featSize>1</featSize>
    <mode>BASIC</mode></featureParams>
  <stageNum>19</stageNum>
  <stages>
    <!-- stage 0 -->
    <_>
      <maxWeakCount>3</maxWeakCount>
      <stageThreshold>-1.2788525819778442e+00</stageThreshold>
      <weakClassifiers>
        <_>
          <internalNodes>
            0 -1 78 2.5414854288101196e-01</internalNodes>
          <leafValues>
            -9.4037306308746338e-01 9.1258043050765991e-01</leafValues></_>
        <_>
          <internalNodes>
            0 -1 52 4.7810602933168411e-02</internalNodes>
          <leafValues>
            -8.6036920547485352e-01 7.3379486799240112e-01</leafValues></_>
        <_>
          <internalNodes>
            0 -1 18 1.5522548556327820e-01</internalNodes>
          <leafValues>
            -8.6840397119522095e-01 5.2188968658447266e-01</leafValues></_></weakClassifiers></_>
    <!-- stage 1 -->
    <_>
      <maxWeakCount>5</maxWeakCount>
      <stageThreshold>-1.2592732906341553e+00</stageThreshold>
      <weakClassifiers>
        <_>
          <internalNodes>
            0 -1 83 2.0081292092800140e-01</internalNodes>
          <leafValues>
            -8.8118809461593628e-01 8.2177573442459106e-01</leafValues></_>
        <_>
          <internalNodes>
            0 -1 25 1.2651988863945007e-01</internalNodes>
          <leafValues>
            -6.9122195243835449e-01 7.8318804502487183e-01</leafValues></_>
        <_>
          <internalNodes>
            0 -1 31 3.0919939279556274e-02</internalNodes>
          <leafValues>
            -8.5620439052581787e-01 4.7772797942161560e-01</leafValues></_>
        <_>
          <internalNodes>
            0 -1 109 1.9383350387215614e-02</internalNodes>
          <leafValues>
            -6.0950797796249390e-01 6.1161267757415771e-01</leafValues></_>
        <_>
          <internalNodes>
            0 -1 119 -4.3757045641541481e-03</internalNodes>
          <leafValues>
            5.5772852897644043e-01 -5.6570231914520264e-01</leafValues></_></weakClassifiers></_>
    <!-- stage 2 -->
    <_>
      <maxWeakCount>5</maxWeakCount>
      <stageThreshold>-1.4132094383239746e+00</stageThreshold>
      <weakClassifiers>
        <_>
          <internalNodes>
            0 -1 83 2.1347153186798096e-01</internalNodes>
          <leafValues>
            -8.0422264337539673e-01 6.3733649253845215e-01</leafValues></_>
        <_>
          <internalNodes>
            0 -1 49 2.9501211643218994e-01</internalNodes>
          <leafValues>
            -5.6043130159378052e-01 7.5520366430282593e-01</leafValues></_>
        <_>
          <internalNodes>
            0 -1 67 1.4448758959770203e-01</internalNodes>
          <leafValues>
            -8.4600383043289185e-01 3.4532591700553894e-01</leafValues></_>
        <_>
          <internalNodes>
            0 -1 53 1.8319096416234970e-02</internalNodes>
          <leafValues>
            -8.4730708599090576e-01 3.2747834920883179e-01</leafValues></_>
        <_>
          <internalNodes>
            0 -1 58 -8.4121283143758774e-03</internalNodes>
          <leafValues>
            4.5342570543289185e-01 -4.8027682304382324e-01</leafValues></_></weakClassifiers></_>
    <!-- stage 3 -->
    <_>
      <maxWeakCount>6</maxWeakCount>
      <stageThreshold>-9.7010725736618042e-01</stageThreshold>
      <weakClassifiers>
        <_>
          <internalNodes>
            0 -1 79 3.0501730740070343e-02</internalNodes>
          <leafValues>
            -5.2064752578735352e-01 6.5830796957015991e-01</leafValues></_>
        <_>
          <internalNodes>
            0 -1 33 3.5145545005798340e-01</internalNodes>
          <leafValues>
            -5.6936711072921753e-01 5.3405261039733887e-01</leafValues></_>
        <_>
          <internalNodes>
            0 -1 11 3.0581885576248169e-01</internalNodes>
          <leafValues>
            -9.4423282146453857e-01 3.5105022788047791e-01</leafValues></_>
        <_>
          <internalNodes>
            0 -1 16 -4.6112131327390671e-02</internalNodes>
          <leafValues>
            -8.0738633871078491e-01 2.3417606949806213e-01</leafValues></_>
        <_>
          <internalNodes>
            0 -1 74 -6.2345410697162151e-03</internalNodes>
          <leafValues>
            3.5190439224243164e-01 -5.1586616039276123e-01</leafValues></_>
        <_>
          <internalNodes>
            0 -1 51 2.2483274340629578e-02</internalNodes>
          <leafValues>
            -7.6972699165344238e-01 2.4241057038307190e-01</leafValues></_></weakClassifiers></_>
    <!-- stage 4 -->
    <_>
      <maxWeakCount>4</maxWeakCount>
      <stageThreshold>-1.1380333900451660e+00</stageThreshold>
      <weakClassifiers>
        <_>
          <internalNodes>
            0 -1 14 -6.2480334192514420e-02</internalNodes>
          <leafValues>
            -8.3064019680023193e-01 5.3813791275024414e-01</leafValues></_>
        <_>
          <internalNodes>
            0 -1 49 3.3230254054069519e-01</internalNodes>
          <leafValues>
            -4.3947431445121765e-01 8.2529759407043457e-01</leafValues></_>
        <_>
          <internalNodes>
            0 -1 59 1.9993788003921509e-01</internalNodes>
          <leafValues>
            -6.9246172904968262e-01 4.6224817633628845e-01</leafValues></_>
        <_>
          <internalNodes>
            0 -1 76 -4.0926290675997734e-03</internalNodes>
          <leafValues>
            5.5881339311599731e-01 -5.4423522949218750e-01</leafValues></_></weakClassifiers></_>
    <!-- stage 5 -->
    <_>
      <maxWeakCount>6</maxWeakCount>
      <stageThreshold>-7.9051899909973145e-01</stageThreshold>
      <weakClassifiers>
        <_>
          <internalNodes>
            0 -1 114 2.1979719400405884e-02</internalNodes>
          <leafValues>
            -6.5783745050430298e-01 5.2846473455429077e-01</leafValues></_>
        <_>
          <internalNodes>
            0 -1 49 3.1244015693664551e-01</internalNodes>
          <leafValues>
            -4.7680965065956116e-01 6.4376842975616455e-01</leafValues></_>
        <_>
          <internalNodes>
            0 -1 50 2.1149776875972748e-02</internalNodes>
          <leafValues>
            -6.8284636735916138e-01 4.4087284803390503e-01</leafValues></_>
        <_>
          <internalNodes>
            0 -1 81 -6.0579734854400158e-03</internalNodes>
          <leafValues>
            4.6146252751350403e-01 -4.5340013504028320e-01</leafValues></_>
        <_>
          <internalNodes>
            0 -1 66 4.0179971605539322e-02</internalNodes>
          <leafValues>
            -7.3395574092864990e-01 2.9373648762702942e-01</leafValues></_>
        <_>
          <internalNodes>
            0 -1 37 1.4443150162696838e-01</internalNodes>
          <leafValues>
            -7.2520798444747925e-01 1.7574848234653473e-01</leafValues></_></weakClassifiers></_>
    <!-- stage 6 -->
    <_>
      <maxWeakCount>8</maxWeakCount>
      <stageThreshold>-1.4759777784347534e+00</stageThreshold>
      <weakClassifiers>
        <_>
          <internalNodes>
            0 -1 38 -6.0548070818185806e-02</internalNodes>
          <leafValues>
            5.9817254543304443e-01 -5.5444949865341187e-01</leafValues></_>
        <_>
          <internalNodes>
            0 -1 89 -5.1922507584095001e-02</internalNodes>
          <leafValues>
            4.5113357901573181e-01 -5.9701263904571533e-01</leafValues></_>
        <_>
          <internalNodes>
            0 -1 3 1.7683427780866623e-02</internalNodes>
          <leafValues>
            2.1788771450519562e-01 -8.7703204154968262e-01</leafValues></_>
        <_>
          <internalNodes>
            0 -1 72 -2.6282533071935177e-03</internalNodes>
          <leafValues>
            -7.0121788978576660e-01 2.8689077496528625e-01</leafValues></_>
        <_>
          <internalNodes>
            0 -1 142 -2.2610621526837349e-03</internalNodes>
          <leafValues>
            -7.4345791339874268e-01 2.1793989837169647e-01</leafValues></_>
        <_>
          <internalNodes>
            0 -1 96 2.0328436221461743e-04</internalNodes>
          <leafValues>
            -6.3284432888031006e-01 1.9123163819313049e-01</leafValues></_>
        <_>
          <internalNodes>
            0 -1 2 8.4691739175468683e-04</internalNodes>
          <leafValues>
            -6.1443161964416504e-01 2.5428450107574463e-01</leafValues></_>
        <_>
          <internalNodes>
            0 -1 106 1.9436939328443259e-04</internalNodes>
          <leafValues>
            -6.2403410673141479e-01 2.1822595596313477e-01</leafValues></_></weakClassifiers></_>
    <!-- stage 7 -->
    <_>
      <maxWeakCount>4</maxWeakCount>
      <stageThreshold>-8.8870364427566528e-01</stageThreshold>
      <weakClassifiers>
        <_>
          <internalNodes>
            0 -1 38 -4.5630373060703278e-02</internalNodes>
          <leafValues>
            6.4350008964538574e-01 -6.8990272283554077e-01</leafValues></_>
        <_>
          <internalNodes>
            0 -1 89 -6.1192464083433151e-02</internalNodes>
          <leafValues>
            5.6825584173202515e-01 -5.9462082386016846e-01</leafValues></_>
        <_>
          <internalNodes>
            0 -1 144 6.3037285581231117e-03</internalNodes>
          <leafValues>
            2.0176646113395691e-01 -8.7039208412170410e-01</leafValues></_>
        <_>
          <internalNodes>
            0 -1 136 3.0730787664651871e-02</internalNodes>
          <leafValues>
            1.9405344128608704e-01 -8.5476851463317871e-01</leafValues></_></weakClassifiers></_>
    <!-- stage 8 -->
    <_>
      <maxWeakCount>8</maxWeakCount>
      <stageThreshold>-1.2645891904830933e+00</stageThreshold>
      <weakClassifiers>
        <_>
          <internalNodes>
            0 -1 100 6.1497338116168976e-02</internalNodes>
          <leafValues>
            -5.2022141218185425e-01 5.5858367681503296e-01</leafValues></_>
        <_>
          <internalNodes>
            0 -1 8 9.6009686589241028e-02</internalNodes>
          <leafValues>
            -5.7765942811965942e-01 4.0237468481063843e-01</leafValues></_>
        <_>
          <internalNodes>
            0 -1 145 -1.9350799266248941e-04</internalNodes>
          <leafValues>
            3.2026413083076477e-01 -5.3617769479751587e-01</leafValues></_>
        <_>
          <internalNodes>
            0 -1 84 -1.2120029423385859e-03</internalNodes>
          <leafValues>
            -6.6036546230316162e-01 2.6753690838813782e-01</leafValues></_>
        <_>
          <internalNodes>
            0 -1 12 1.9919671467505395e-04</internalNodes>
          <leafValues>
            -6.1435616016387939e-01 2.7786910533905029e-01</leafValues></_>
        <_>
          <internalNodes>
            0 -1 103 6.0368992853909731e-04</internalNodes>
          <leafValues>
            3.9131346344947815e-01 -4.1261273622512817e-01</leafValues></_>
        <_>
          <internalNodes>
            0 -1 101 -4.8169161891564727e-04</internalNodes>
          <leafValues>
            1.7935016751289368e-01 -7.8678309917449951e-01</leafValues></_>
        <_>
          <internalNodes>
            0 -1 75 2.0729207608383149e-04</internalNodes>
          <leafValues>
            -8.7457591295242310e-01 9.3109279870986938e-02</leafValues></_></weakClassifiers></_>
    <!-- stage 9 -->
    <_>
      <maxWeakCount>11</maxWeakCount>
      <stageThreshold>-1.3495035171508789e+00</stageThreshold>
      <weakClassifiers>
        <_>
          <internalNodes>
            0 -1 115 -2.6405952870845795e-02</internalNodes>
          <leafValues>
            6.0051846504211426e-01 -3.4657129645347595e-01</leafValues></_>
        <_>
          <internalNodes>
            0 -1 26 -4.3625388294458389e-02</internalNodes>
          <leafValues>
            2.7621990442276001e-01 -7.3999059200286865e-01</leafValues></_>
        <_>
          <internalNodes>
            0 -1 147 -1.9386610074434429e-04</internalNodes>
          <leafValues>
            2.5329273939132690e-01 -6.1159491539001465e-01</leafValues></_>
        <_>
          <internalNodes>
            0 -1 64 -1.1663009645417333e-03</internalNodes>
          <leafValues>
            -4.1253754496574402e-01 4.3080255389213562e-01</leafValues></_>
        <_>
          <internalNodes>
            0 -1 90 2.3768772371113300e-04</internalNodes>
          <leafValues>
            -8.2922875881195068e-01 1.7417219281196594e-01</leafValues></_>
        <_>
          <internalNodes>
            0 -1 1 -5.2020510338479653e-05</internalNodes>
          <leafValues>
            -8.3499294519424438e-01 1.5277105569839478e-01</leafValues></_>
        <_>
          <internalNodes>
            0 -1 21 -7.7320151031017303e-02</internalNodes>
          <leafValues>
            7.2428005933761597e-01 -2.3380270600318909e-01</leafValues></_>
        <_>
          <internalNodes>
            0 -1 144 7.1246582083404064e-03</internalNodes>
          <leafValues>
            1.5950213372707367e-01 -9.0215897560119629e-01</leafValues></_>
        <_>
          <internalNodes>
            0 -1 5 3.1866487115621567e-02</internalNodes>
          <leafValues>
            1.0015945881605148e-01 -9.3470549583435059e-01</leafValues></_>
        <_>
          <internalNodes>
            0 -1 128 3.6786580458283424e-03</internalNodes>
          <leafValues>
            -2.7171674370765686e-01 5.9338068962097168e-01</leafValues></_>
        <_>
          <internalNodes>
            0 -1 88 6.1187188839539886e-04</internalNodes>
          <leafValues>
            4.1496804356575012e-01 -3.3610513806343079e-01</leafValues></_></weakClassifiers></_>
    <!-- stage 10 -->
    <_>
      <maxWeakCount>7</maxWeakCount>
      <stageThreshold>-9.5011037588119507e-01</stageThreshold>
      <weakClassifiers>
        <_>
          <internalNodes>
            0 -1 87 1.7059715464711189e-02</internalNodes>
          <leafValues>
            -6.8974298238754272e-01 4.1742002964019775e-01</leafValues></_>
        <_>
          <internalNodes>
            0 -1 127 7.9971812665462494e-03</internalNodes>
          <leafValues>
            -3.4042710065841675e-01 6.2227153778076172e-01</leafValues></_>
        <_>
          <internalNodes>
            0 -1 110 1.3265046291053295e-02</internalNodes>
          <leafValues>
            -6.2532562017440796e-01 2.5026184320449829e-01</leafValues></_>
        <_>
          <internalNodes>
            0 -1 139 5.1250546675873920e-05</internalNodes>
          <leafValues>
            2.0047016441822052e-01 -8.3035385608673096e-01</leafValues></_>
        <_>
          <internalNodes>
            0 -1 42 5.9934915043413639e-04</internalNodes>
          <leafValues>
            -4.5769158005714417e-01 3.0933010578155518e-01</leafValues></_>
        <_>
          <internalNodes>
            0 -1 137 -1.7383504658937454e-02</internalNodes>
          <leafValues>
            -9.6138364076614380e-01 1.6561232507228851e-01</leafValues></_>
        <_>
          <internalNodes>
            0 -1 94 1.8831677152775228e-04</internalNodes>
          <leafValues>
            -6.0695409774780273e-01 1.8520931899547577e-01</leafValues></_></weakClassifiers></_>
    <!-- stage 11 -->
    <_>
      <maxWeakCount>11</maxWeakCount>
      <stageThreshold>-9.5111864805221558e-01</stageThreshold>
      <weakClassifiers>
        <_>
          <internalNodes>
            0 -1 55 4.7746188938617706e-02</internalNodes>
          <leafValues>
            -3.6332634091377258e-01 5.6019026041030884e-01</leafValues></_>
        <_>
          <internalNodes>
            0 -1 57 -7.4680307880043983e-03</internalNodes>
          <leafValues>
            4.1553774476051331e-01 -3.7775978446006775e-01</leafValues></_>
        <_>
          <internalNodes>
            0 -1 111 -1.9312516087666154e-04</internalNodes>
          <leafValues>
            2.7165055274963379e-01 -5.1668566465377808e-01</leafValues></_>
        <_>
          <internalNodes>
            0 -1 15 1.9081792561337352e-04</internalNodes>
          <leafValues>
            -4.8869499564170837e-01 3.1670549511909485e-01</leafValues></_>
        <_>
          <internalNodes>
            0 -1 13 6.4753545448184013e-03</internalNodes>
          <leafValues>
            1.3238291442394257e-01 -9.2433583736419678e-01</leafValues></_>
        <_>
          <internalNodes>
            0 -1 82 -6.1970215756446123e-04</internalNodes>
          <leafValues>
            -4.2908245325088501e-01 2.9510614275932312e-01</leafValues></_>
        <_>
          <internalNodes>
            0 -1 138 4.8069035983644426e-05</internalNodes>
          <leafValues>
            1.5200518071651459e-01 -7.3562383651733398e-01</leafValues></_>
        <_>
          <internalNodes>
            0 -1 104 1.3026114553213120e-02</internalNodes>
          <leafValues>
            -2.3334510624408722e-01 5.7602220773696899e-01</leafValues></_>
        <_>
          <internalNodes>
            0 -1 96 1.8895181710831821e-04</internalNodes>
          <leafValues>
            -5.4260027408599854e-01 2.1276845037937164e-01</leafValues></_>
        <_>
          <internalNodes>
            0 -1 97 2.6415201136842370e-04</internalNodes>
          <leafValues>
            -7.0028042793273926e-01 1.5607108175754547e-01</leafValues></_>
        <_>
          <internalNodes>
            0 -1 70 -1.3316664844751358e-02</internalNodes>
          <leafValues>
            -6.9584506750106812e-01 1.4837475121021271e-01</leafValues></_></weakClassifiers></_>
    <!-- stage 12 -->
    <_>
      <maxWeakCount>9</maxWeakCount>
      <stageThreshold>-9.5724594593048096e-01</stageThreshold>
      <weakClassifiers>
        <_>
          <internalNodes>
            0 -1 121 -1.8605875084176660e-04</internalNodes>
          <leafValues>
            3.8744056224822998e-01 -8.0082756280899048e-01</leafValues></_>
        <_>
          <internalNodes>
            0 -1 69 5.0769187510013580e-03</internalNodes>
          <leafValues>
            -4.8126885294914246e-01 3.8835012912750244e-01</leafValues></_>
        <_>
          <internalNodes>
            0 -1 46 3.3951026201248169e-01</internalNodes>
          <leafValues>
            -1.8662542104721069e-01 9.0158385038375854e-01</leafValues></_>
        <_>
          <internalNodes>
            0 -1 4 1.2850418686866760e-02</internalNodes>
          <leafValues>
            -4.6077227592468262e-01 3.6966925859451294e-01</leafValues></_>
        <_>
          <internalNodes>
            0 -1 19 1.4012205414474010e-02</internalNodes>
          <leafValues>
            2.2619625926017761e-01 -8.7039560079574585e-01</leafValues></_>
        <_>
          <internalNodes>
            0 -1 118 1.1754848062992096e-02</internalNodes>
          <leafValues>
            -2.5295761227607727e-01 6.5408760309219360e-01</leafValues></_>
        <_>
          <internalNodes>
            0 -1 61 1.7516706138849258e-02</internalNodes>
          <leafValues>
            1.5786939859390259e-01 -8.3322542905807495e-01</leafValues></_>
        <_>
          <internalNodes>
            0 -1 126 -5.7723168283700943e-03</internalNodes>
          <leafValues>
            6.5231859683990479e-01 -2.3568737506866455e-01</leafValues></_>
        <_>
          <internalNodes>
            0 -1 95 1.9516251981258392e-02</internalNodes>
          <leafValues>
            1.8458774685859680e-01 -8.7797075510025024e-01</leafValues></_></weakClassifiers></_>
    <!-- stage 13 -->
    <_>
      <maxWeakCount>10</maxWeakCount>
      <stageThreshold>-1.0027415752410889e+00</stageThreshold>
      <weakClassifiers>
        <_>
          <internalNodes>
            0 -1 77 -5.9943966567516327e-02</internalNodes>
          <leafValues>
            4.6887719631195068e-01 -5.0434780120849609e-01</leafValues></_>
        <_>
          <internalNodes>
            0 -1 40 7.1440972387790680e-03</internalNodes>
          <leafValues>
            -2.9677164554595947e-01 6.1119019985198975e-01</leafValues></_>
        <_>
          <internalNodes>
            0 -1 23 -2.5645671412348747e-03</internalNodes>
          <leafValues>
            -6.7794162034988403e-01 2.2444933652877808e-01</leafValues></_>
        <_>
          <internalNodes>
            0 -1 24 -2.1181514021009207e-03</internalNodes>
          <leafValues>
            -7.8213429450988770e-01 1.6814681887626648e-01</leafValues></_>
        <_>
          <internalNodes>
            0 -1 65 4.5989264617674053e-04</internalNodes>
          <leafValues>
            2.8515020012855530e-01 -4.2600700259208679e-01</leafValues></_>
        <_>
          <internalNodes>
            0 -1 0 -5.6565266277175397e-05</internalNodes>
          <leafValues>
            -8.2083606719970703e-01 1.4492055773735046e-01</leafValues></_>
        <_>
          <internalNodes>
            0 -1 143 1.8936766311526299e-02</internalNodes>
          <leafValues>
            5.2666470408439636e-02 -9.2611771821975708e-01</leafValues></_>
        <_>
          <internalNodes>
            0 -1 54 -3.7751074414700270e-03</internalNodes>
          <leafValues>
            -6.6235929727554321e-01 1.7440880835056305e-01</leafValues></_>
        <_>
          <internalNodes>
            0 -1 123 -1.0007962584495544e-02</internalNodes>
          <leafValues>
            3.7214684486389160e-01 -3.5602837800979614e-01</leafValues></_>
        <_>
          <internalNodes>
            0 -1 11 3.3397269248962402e-01</internalNodes>
          <leafValues>
            -8.9533585309982300e-01 1.1729943752288818e-01</leafValues></_></weakClassifiers></_>
    <!-- stage 14 -->
    <_>
      <maxWeakCount>13</maxWeakCount>
      <stageThreshold>-9.9339032173156738e-01</stageThreshold>
      <weakClassifiers>
        <_>
          <internalNodes>
            0 -1 48 1.0150059312582016e-01</internalNodes>
          <leafValues>
            -3.4722220897674561e-01 5.0133365392684937e-01</leafValues></_>
        <_>
          <internalNodes>
            0 -1 29 6.8083846569061279e-01</internalNodes>
          <leafValues>
            2.4455444514751434e-01 -7.6097899675369263e-01</leafValues></_>
        <_>
          <internalNodes>
            0 -1 73 4.1584513382986188e-04</internalNodes>
          <leafValues>
            -7.1319627761840820e-01 2.0581646263599396e-01</leafValues></_>
        <_>
          <internalNodes>
            0 -1 112 1.9569895812310278e-04</internalNodes>
          <leafValues>
            -5.1987463235855103e-01 2.0850262045860291e-01</leafValues></_>
        <_>
          <internalNodes>
            0 -1 36 -4.9141007661819458e-01</internalNodes>
          <leafValues>
            8.4755212068557739e-01 -1.4947195351123810e-01</leafValues></_>
        <_>
          <internalNodes>
            0 -1 122 -6.4158672466874123e-04</internalNodes>
          <leafValues>
            -4.6391388773918152e-01 2.5209727883338928e-01</leafValues></_>
        <_>
          <internalNodes>
            0 -1 140 1.3652026653289795e-02</internalNodes>
          <leafValues>
            -4.5502668619155884e-01 2.6765188574790955e-01</leafValues></_>
        <_>
          <internalNodes>
            0 -1 136 2.9480177909135818e-02</internalNodes>
          <leafValues>
            1.8588049709796906e-01 -8.8246297836303711e-01</leafValues></_>
        <_>
          <internalNodes>
            0 -1 60 1.3905495405197144e-02</internalNodes>
          <leafValues>
            -2.4737927317619324e-01 5.2781575918197632e-01</leafValues></_>
        <_>
          <internalNodes>
            0 -1 43 -1.0740686208009720e-02</internalNodes>
          <leafValues>
            6.3990247249603271e-01 -1.6962414979934692e-01</leafValues></_>
        <_>
          <internalNodes>
            0 -1 86 -1.1328767286613584e-03</internalNodes>
          <leafValues>
            -3.7890228629112244e-01 3.2729145884513855e-01</leafValues></_>
        <_>
          <internalNodes>
            0 -1 27 -1.8680579960346222e-03</internalNodes>
          <leafValues>
            -9.2245864868164063e-01 1.4746543765068054e-01</leafValues></_>
        <_>
          <internalNodes>
            0 -1 117 4.3289750814437866e-02</internalNodes>
          <leafValues>
            -1.9074080884456635e-01 7.0780539512634277e-01</leafValues></_></weakClassifiers></_>
    <!-- stage 15 -->
    <_>
      <maxWeakCount>13</maxWeakCount>
      <stageThreshold>-1.2410883903503418e+00</stageThreshold>
      <weakClassifiers>
        <_>
          <internalNodes>
            0 -1 102 3.9818886667490005e-02</internalNodes>
          <leafValues>
            -1.9642856717109680e-01 6.2996482849121094e-01</leafValues></_>
        <_>
          <internalNodes>
            0 -1 116 1.3634811155498028e-02</internalNodes>
          <leafValues>
            -4.5170539617538452e-01 3.1353670358657837e-01</leafValues></_>
        <_>
          <internalNodes>
            0 -1 130 -8.1709079677239060e-04</internalNodes>
          <leafValues>
            3.2882523536682129e-01 -3.5866072773933411e-01</leafValues></_>
        <_>
          <internalNodes>
            0 -1 68 1.1919379234313965e-02</internalNodes>
          <leafValues>
            -2.9725074768066406e-01 3.7650001049041748e-01</leafValues></_>
        <_>
          <internalNodes>
            0 -1 45 4.7504785656929016e-01</internalNodes>
          <leafValues>
            -1.9265899062156677e-01 7.3010545969009399e-01</leafValues></_>
        <_>
          <internalNodes>
            0 -1 93 -2.3341539781540632e-04</internalNodes>
          <leafValues>
            3.9329335093498230e-01 -3.3148568868637085e-01</leafValues></_>
        <_>
          <internalNodes>
            0 -1 91 -2.0673172548413277e-03</internalNodes>
          <leafValues>
            -8.1901186704635620e-01 1.3738942146301270e-01</leafValues></_>
        <_>
          <internalNodes>
            0 -1 135 -1.1295469012111425e-03</internalNodes>
          <leafValues>
            -7.7769207954406738e-01 1.1579023301601410e-01</leafValues></_>
        <_>
          <internalNodes>
            0 -1 92 3.6058280616998672e-02</internalNodes>
          <leafValues>
            -5.8851587772369385e-01 1.4800871908664703e-01</leafValues></_>
        <_>
          <internalNodes>
            0 -1 20 5.4610662162303925e-02</internalNodes>
          <leafValues>
            1.0339743643999100e-01 -8.2294833660125732e-01</leafValues></_>
        <_>
          <internalNodes>
            0 -1 28 6.8760768044739962e-04</internalNodes>
          <leafValues>
            1.0572072863578796e-01 -7.6389080286026001e-01</leafValues></_>
        <_>
          <internalNodes>
            0 -1 98 1.1856460943818092e-02</internalNodes>
          <leafValues>
            1.1610531806945801e-01 -7.5375711917877197e-01</leafValues></_>
        <_>
          <internalNodes>
            0 -1 62 5.0812386907637119e-03</internalNodes>
          <leafValues>
            -1.6802765429019928e-01 6.9098424911499023e-01</leafValues></_></weakClassifiers></_>
    <!-- stage 16 -->
    <_>
      <maxWeakCount>12</maxWeakCount>
      <stageThreshold>-1.1429406404495239e+00</stageThreshold>
      <weakClassifiers>
        <_>
          <internalNodes>
            0 -1 47 3.5943484306335449e-01</internalNodes>
          <leafValues>
            -3.6527124047279358e-01 4.7582697868347168e-01</leafValues></_>
        <_>
          <internalNodes>
            0 -1 9 6.8756830692291260e-01</internalNodes>
          <leafValues>
            2.3803718388080597e-01 -7.9353690147399902e-01</leafValues></_>
        <_>
          <internalNodes>
            0 -1 71 1.1694697663187981e-02</internalNodes>
          <leafValues>
            -5.0935083627700806e-01 2.1537521481513977e-01</leafValues></_>
        <_>
          <internalNodes>
            0 -1 30 9.9813204724341631e-04</internalNodes>
          <leafValues>
            -3.3869230747222900e-01 3.3186247944831848e-01</leafValues></_>
        <_>
          <internalNodes>
            0 -1 132 1.3500981731340289e-03</internalNodes>
          <leafValues>
            1.2360000610351563e-01 -8.1957256793975830e-01</leafValues></_>
        <_>
          <internalNodes>
            0 -1 131 -2.2436524741351604e-03</internalNodes>
          <leafValues>
            -8.4103542566299438e-01 1.2357366085052490e-01</leafValues></_>
        <_>
          <internalNodes>
            0 -1 10 9.7410229500383139e-04</internalNodes>
          <leafValues>
            2.9016536474227905e-01 -3.4647667407989502e-01</leafValues></_>
        <_>
          <internalNodes>
            0 -1 125 -1.2058757245540619e-02</internalNodes>
          <leafValues>
            5.7440805435180664e-01 -1.9869394600391388e-01</leafValues></_>
        <_>
          <internalNodes>
            0 -1 120 -1.0191576182842255e-01</internalNodes>
          <leafValues>
            6.4990222454071045e-01 -1.7401711642742157e-01</leafValues></_>
        <_>
          <internalNodes>
            0 -1 17 -1.8599096219986677e-03</internalNodes>
          <leafValues>
            -5.9131550788879395e-01 2.0977006852626801e-01</leafValues></_>
        <_>
          <internalNodes>
            0 -1 34 -2.2918886970728636e-03</internalNodes>
          <leafValues>
            -8.1714898347854614e-01 1.2441907823085785e-01</leafValues></_>
        <_>
          <internalNodes>
            0 -1 134 5.3453948348760605e-03</internalNodes>
          <leafValues>
            1.0069222003221512e-01 -8.4503394365310669e-01</leafValues></_></weakClassifiers></_>
    <!-- stage 17 -->
    <_>
      <maxWeakCount>14</maxWeakCount>
      <stageThreshold>-9.2973619699478149e-01</stageThreshold>
      <weakClassifiers>
        <_>
          <internalNodes>
            0 -1 129 7.5449086725711823e-03</internalNodes>
          <leafValues>
            -2.4819751083850861e-01 6.1403506994247437e-01</leafValues></_>
        <_>
          <internalNodes>
            0 -1 134 -9.2495102435350418e-03</internalNodes>
          <leafValues>
            -8.0067461729049683e-01 1.7969307303428650e-01</leafValues></_>
        <_>
          <internalNodes>
            0 -1 22 1.3884381391108036e-02</internalNodes>
          <leafValues>
            -2.2167520225048065e-01 5.1288807392120361e-01</leafValues></_>
        <_>
          <internalNodes>
            0 -1 6 4.2608771473169327e-03</internalNodes>
          <leafValues>
            1.2525379657745361e-01 -7.6206821203231812e-01</leafValues></_>
        <_>
          <internalNodes>
            0 -1 108 -5.9169187443330884e-04</internalNodes>
          <leafValues>
            -3.9225837588310242e-01 2.6353976130485535e-01</leafValues></_>
        <_>
          <internalNodes>
            0 -1 32 -4.8498049378395081e-02</internalNodes>
          <leafValues>
            -9.1332775354385376e-01 6.2220402061939240e-02</leafValues></_>
        <_>
          <internalNodes>
            0 -1 85 2.0066103024873883e-04</internalNodes>
          <leafValues>
            -5.1649707555770874e-01 1.5691371262073517e-01</leafValues></_>
        <_>
          <internalNodes>
            0 -1 99 2.1828606724739075e-02</internalNodes>
          <leafValues>
            -1.9443690776824951e-01 5.3624814748764038e-01</leafValues></_>
        <_>
          <internalNodes>
            0 -1 7 -5.8226552937412634e-05</internalNodes>
          <leafValues>
            -7.8354328870773315e-01 1.2024877220392227e-01</leafValues></_>
        <_>
          <internalNodes>
            0 -1 107 1.0427283123135567e-03</internalNodes>
          <leafValues>
            -5.9442567825317383e-01 1.4686661958694458e-01</leafValues></_>
        <_>
          <internalNodes>
            0 -1 124 -1.0708743706345558e-02</internalNodes>
          <leafValues>
            6.6867631673812866e-01 -1.7051012814044952e-01</leafValues></_>
        <_>
          <internalNodes>
            0 -1 146 -1.0259423404932022e-02</internalNodes>
          <leafValues>
            -9.0971136093139648e-01 1.5839511156082153e-01</leafValues></_>
        <_>
          <internalNodes>
            0 -1 80 1.6393922269344330e-02</internalNodes>
          <leafValues>
            -1.8095752596855164e-01 6.0944837331771851e-01</leafValues></_>
        <_>
          <internalNodes>
            0 -1 141 -1.1889994144439697e-02</internalNodes>
          <leafValues>
            3.9208057522773743e-01 -2.7217605710029602e-01</leafValues></_></weakClassifiers></_>
    <!-- stage 18 -->
    <_>
      <maxWeakCount>13</maxWeakCount>
      <stageThreshold>-1.0143140554428101e+00</stageThreshold>
      <weakClassifiers>
        <_>
          <internalNodes>
            0 -1 40 8.4034455940127373e-03</internalNodes>
          <leafValues>
            -2.3614506423473358e-01 6.8936240673065186e-01</leafValues></_>
        <_>
          <internalNodes>
            0 -1 44 -5.0032744184136391e-03</internalNodes>
          <leafValues>
            3.2870182394981384e-01 -3.5798552632331848e-01</leafValues></_>
        <_>
          <internalNodes>
            0 -1 147 -1.9200559472665191e-04</internalNodes>
          <leafValues>
            1.9350138306617737e-01 -5.1559686660766602e-01</leafValues></_>
        <_>
          <internalNodes>
            0 -1 35 2.7020677924156189e-02</internalNodes>
          <leafValues>
            1.3002674281597137e-01 -6.8993431329727173e-01</leafValues></_>
        <_>
          <internalNodes>
            0 -1 29 8.1495285034179688e-01</internalNodes>
          <leafValues>
            1.0698573291301727e-01 -8.3445405960083008e-01</leafValues></_>
        <_>
          <internalNodes>
            0 -1 39 6.8228662014007568e-02</internalNodes>
          <leafValues>
            -5.1447403430938721e-01 2.5271466374397278e-01</leafValues></_>
        <_>
          <internalNodes>
            0 -1 133 -2.6841357350349426e-02</internalNodes>
          <leafValues>
            -9.0855222940444946e-01 9.2646375298500061e-02</leafValues></_>
        <_>
          <internalNodes>
            0 -1 63 -2.1195658482611179e-03</internalNodes>
          <leafValues>
            -5.6265842914581299e-01 1.5560328960418701e-01</leafValues></_>
        <_>
          <internalNodes>
            0 -1 113 5.6264556944370270e-02</internalNodes>
          <leafValues>
            1.1548166722059250e-01 -8.2771408557891846e-01</leafValues></_>
        <_>
          <internalNodes>
            0 -1 60 -1.1030934983864427e-03</internalNodes>
          <leafValues>
            -4.6113353967666626e-01 1.9383953511714935e-01</leafValues></_>
        <_>
          <internalNodes>
            0 -1 56 -7.2364811785519123e-03</internalNodes>
          <leafValues>
            7.5785136222839355e-01 -1.1919166892766953e-01</leafValues></_>
        <_>
          <internalNodes>
            0 -1 41 -4.7667704522609711e-02</internalNodes>
          <leafValues>
            -8.0962514877319336e-01 1.4927324652671814e-01</leafValues></_>
        <_>
          <internalNodes>
            0 -1 105 1.8431866192258894e-04</internalNodes>
          <leafValues>
            -4.2047446966171265e-01 2.1102978289127350e-01</leafValues></_></weakClassifiers></_></stages>
  <features>
    <_>
      <rects>
        <_>
          0 0 1 2 -1.</_>
        <_>
          0 1 1 1 2.</_></rects>
      <tilted>0</tilted></_>
    <_>
      <rects>
        <_>
          0 0 2 2 -1.</_>
        <_>
          1 0 1 2 2.</_></rects>
      <tilted>0</tilted></_>
    <_>
      <rects>
        <_>
          0 0 1 6 -1.</_>
        <_>
          0 3 1 3 2.</_></rects>
      <tilted>0</tilted></_>
    <_>
      <rects>
        <_>
          0 0 1 9 -1.</_>
        <_>
          0 3 1 3 3.</_></rects>
      <tilted>0</tilted></_>
    <_>
      <rects>
        <_>
          0 0 1 12 -1.</_>
        <_>
          0 4 1 4 3.</_></rects>
      <tilted>0</tilted></_>
    <_>
      <rects>
        <_>
          0 0 1 12 -1.</_>
        <_>
          0 6 1 6 2.</_></rects>
      <tilted>0</tilted></_>
    <_>
      <rects>
        <_>
          0 0 2 12 -1.</_>
        <_>
          0 0 1 6 2.</_>
        <_>
          1 6 1 6 2.</_></rects>
      <tilted>0</tilted></_>
    <_>
      <rects>
        <_>
          0 0 2 2 -1.</_>
        <_>
          0 1 2 1 2.</_></rects>
      <tilted>0</tilted></_>
    <_>
      <rects>
        <_>
          0 0 10 8 -1.</_>
        <_>
          0 0 5 4 2.</_>
        <_>
          5 4 5 4 2.</_></rects>
      <tilted>0</tilted></_>
    <_>
      <rects>
        <_>
          0 0 15 12 -1.</_>
        <_>
          5 0 5 12 3.</_></rects>
      <tilted>0</tilted></_>
    <_>
      <rects>
        <_>
          0 0 12 2 -1.</_>
        <_>
          0 1 12 1 2.</_></rects>
      <tilted>0</tilted></_>
    <_>
      <rects>
        <_>
          0 0 16 12 -1.</_>
        <_>
          0 4 16 4 3.</_></rects>
      <tilted>0</tilted></_>
    <_>
      <rects>
        <_>
          0 1 1 2 -1.</_>
        <_>
          0 2 1 1 2.</_></rects>
      <tilted>0</tilted></_>
    <_>
      <rects>
        <_>
          0 1 1 6 -1.</_>
        <_>
          0 3 1 2 3.</_></rects>
      <tilted>0</tilted></_>
    <_>
      <rects>
        <_>
          0 1 16 10 -1.</_>
        <_>
          0 1 8 5 2.</_>
        <_>
          8 6 8 5 2.</_></rects>
      <tilted>0</tilted></_>
    <_>
      <rects>
        <_>
          0 2 1 2 -1.</_>
        <_>
          0 3 1 1 2.</_></rects>
      <tilted>0</tilted></_>
    <_>
      <rects>
        <_>
          0 2 16 8 -1.</_>
        <_>
          0 2 8 4 2.</_>
        <_>
          8 6 8 4 2.</_></rects>
      <tilted>0</tilted></_>
    <_>
      <rects>
        <_>
          0 2 10 3 -1.</_>
        <_>
          0 3 10 1 3.</_></rects>
      <tilted>0</tilted></_>
    <_>
      <rects>
        <_>
          0 2 15 9 -1.</_>
        <_>
          0 5 15 3 3.</_></rects>
      <tilted>0</tilted></_>
    <_>
      <rects>
        <_>
          0 3 1 9 -1.</_>
        <_>
          0 6 1 3 3.</_></rects>
      <tilted>0</tilted></_>
    <_>
      <rects>
        <_>
          0 3 4 9 -1.</_>
        <_>
          0 6 4 3 3.</_></rects>
      <tilted>0</tilted></_>
    <_>
      <rects>
        <_>
          0 4 6 4 -1.</_>
        <_>
          2 4 2 4 3.</_></rects>
      <tilted>0</tilted></_>
    <_>
      <rects>
        <_>
          0 4 4 8 -1.</_>
        <_>
          0 4 2 4 2.</_>
        <_>
          2 8 2 4 2.</_></rects>
      <tilted>0</tilted></_>
    <_>
      <rects>
        <_>
          0 4 14 2 -1.</_>
        <_>
          0 4 7 1 2.</_>
        <_>
          7 5 7 1 2.</_></rects>
      <tilted>0</tilted></_>
    <_>
      <rects>
        <_>
          0 5 1 6 -1.</_>
        <_>
          0 7 1 2 3.</_></rects>
      <tilted>0</tilted></_>
    <_>
      <rects>
        <_>
          0 5 15 2 -1.</_>
        <_>
          5 5 5 2 3.</_></rects>
      <tilted>0</tilted></_>
    <_>
      <rects>
        <_>
          0 6 10 6 -1.</_>
        <_>
          0 6 5 3 2.</_>
        <_>
          5 9 5 3 2.</_></rects>
      <tilted>0</tilted></_>
    <_>
      <rects>
        <_>
          0 10 2 2 -1.</_>
        <_>
          1 10 1 2 2.</_></rects>
      <tilted>0</tilted></_>
    <_>
      <rects>
        <_>
          0 10 2 2 -1.</_>
        <_>
          0 11 2 1 2.</_></rects>
      <tilted>0</tilted></_>
    <_>
      <rects>
        <_>
          1 0 15 12 -1.</_>
        <_>
          6 0 5 12 3.</_></rects>
      <tilted>0</tilted></_>
    <_>
      <rects>
        <_>
          1 1 2 1 -1.</_>
        <_>
          2 1 1 1 2.</_></rects>
      <tilted>0</tilted></_>
    <_>
      <rects>
        <_>
          1 2 12 6 -1.</_>
        <_>
          1 4 12 2 3.</_></rects>
      <tilted>0</tilted></_>
    <_>
      <rects>
        <_>
          1 3 4 9 -1.</_>
        <_>
          1 6 4 3 3.</_></rects>
      <tilted>0</tilted></_>
    <_>
      <rects>
        <_>
          1 3 15 6 -1.</_>
        <_>
          6 3 5 6 3.</_></rects>
      <tilted>0</tilted></_>
    <_>
      <rects>
        <_>
          1 3 13 3 -1.</_>
        <_>
          1 4 13 1 3.</_></rects>
      <tilted>0</tilted></_>
    <_>
      <rects>
        <_>
          1 3 15 3 -1.</_>
        <_>
          1 4 15 1 3.</_></rects>
      <tilted>0</tilted></_>
    <_>
      <rects>
        <_>
          1 4 14 8 -1.</_>
        <_>
          8 4 7 8 2.</_></rects>
      <tilted>0</tilted></_>
    <_>
      <rects>
        <_>
          1 5 15 7 -1.</_>
        <_>
          6 5 5 7 3.</_></rects>
      <tilted>0</tilted></_>
    <_>
      <rects>
        <_>
          1 6 8 6 -1.</_>
        <_>
          1 6 4 3 2.</_>
        <_>
          5 9 4 3 2.</_></rects>
      <tilted>0</tilted></_>
    <_>
      <rects>
        <_>
          1 6 15 1 -1.</_>
        <_>
          6 6 5 1 3.</_></rects>
      <tilted>0</tilted></_>
    <_>
      <rects>
        <_>
          1 8 4 4 -1.</_>
        <_>
          1 8 2 2 2.</_>
        <_>
          3 10 2 2 2.</_></rects>
      <tilted>0</tilted></_>
    <_>
      <rects>
        <_>
          1 8 5 4 -1.</_>
        <_>
          1 10 5 2 2.</_></rects>
      <tilted>0</tilted></_>
    <_>
      <rects>
        <_>
          2 0 2 1 -1.</_>
        <_>
          3 0 1 1 2.</_></rects>
      <tilted>0</tilted></_>
    <_>
      <rects>
        <_>
          2 0 4 4 -1.</_>
        <_>
          2 0 2 2 2.</_>
        <_>
          4 2 2 2 2.</_></rects>
      <tilted>0</tilted></_>
    <_>
      <rects>
        <_>
          2 0 4 6 -1.</_>
        <_>
          2 2 4 2 3.</_></rects>
      <tilted>0</tilted></_>
    <_>
      <rects>
        <_>
          2 0 12 10 -1.</_>
        <_>
          8 0 6 10 2.</_></rects>
      <tilted>0</tilted></_>
    <_>
      <rects>
        <_>
          2 1 12 7 -1.</_>
        <_>
          8 1 6 7 2.</_></rects>
      <tilted>0</tilted></_>
    <_>
      <rects>
        <_>
          2 2 12 8 -1.</_>
        <_>
          6 2 4 8 3.</_></rects>
      <tilted>0</tilted></_>
    <_>
      <rects>
        <_>
          2 3 12 2 -1.</_>
        <_>
          6 3 4 2 3.</_></rects>
      <tilted>0</tilted></_>
    <_>
      <rects>
        <_>
          2 3 12 6 -1.</_>
        <_>
          6 3 4 6 3.</_></rects>
      <tilted>0</tilted></_>
    <_>
      <rects>
        <_>
          2 4 6 6 -1.</_>
        <_>
          2 6 6 2 3.</_></rects>
      <tilted>0</tilted></_>
    <_>
      <rects>
        <_>
          2 5 12 1 -1.</_>
        <_>
          6 5 4 1 3.</_></rects>
      <tilted>0</tilted></_>
    <_>
      <rects>
        <_>
          2 5 12 2 -1.</_>
        <_>
          6 5 4 2 3.</_></rects>
      <tilted>0</tilted></_>
    <_>
      <rects>
        <_>
          2 6 12 1 -1.</_>
        <_>
          6 6 4 1 3.</_></rects>
      <tilted>0</tilted></_>
    <_>
      <rects>
        <_>
          2 6 14 2 -1.</_>
        <_>
          2 6 7 1 2.</_>
        <_>
          9 7 7 1 2.</_></rects>
      <tilted>0</tilted></_>
    <_>
      <rects>
        <_>
          2 8 12 1 -1.</_>
        <_>
          6 8 4 1 3.</_></rects>
      <tilted>0</tilted></_>
    <_>
      <rects>
        <_>
          3 0 2 6 -1.</_>
        <_>
          3 0 1 3 2.</_>
        <_>
          4 3 1 3 2.</_></rects>
      <tilted>0</tilted></_>
    <_>
      <rects>
        <_>
          3 0 3 6 -1.</_>
        <_>
          3 2 3 2 3.</_></rects>
      <tilted>0</tilted></_>
    <_>
      <rects>
        <_>
          3 0 8 3 -1.</_>
        <_>
          3 1 8 1 3.</_></rects>
      <tilted>0</tilted></_>
    <_>
      <rects>
        <_>
          3 2 10 9 -1.</_>
        <_>
          3 5 10 3 3.</_></rects>
      <tilted>0</tilted></_>
    <_>
      <rects>
        <_>
          3 3 3 6 -1.</_>
        <_>
          4 3 1 6 3.</_></rects>
      <tilted>0</tilted></_>
    <_>
      <rects>
        <_>
          3 4 6 4 -1.</_>
        <_>
          3 4 3 2 2.</_>
        <_>
          6 6 3 2 2.</_></rects>
      <tilted>0</tilted></_>
    <_>
      <rects>
        <_>
          3 6 2 4 -1.</_>
        <_>
          3 6 1 2 2.</_>
        <_>
          4 8 1 2 2.</_></rects>
      <tilted>0</tilted></_>
    <_>
      <rects>
        <_>
          3 7 9 3 -1.</_>
        <_>
          3 8 9 1 3.</_></rects>
      <tilted>0</tilted></_>
    <_>
      <rects>
        <_>
          3 10 10 2 -1.</_>
        <_>
          3 11 10 1 2.</_></rects>
      <tilted>0</tilted></_>
    <_>
      <rects>
        <_>
          4 0 4 2 -1.</_>
        <_>
          4 1 4 1 2.</_></rects>
      <tilted>0</tilted></_>
    <_>
      <rects>
        <_>
          4 2 10 6 -1.</_>
        <_>
          4 4 10 2 3.</_></rects>
      <tilted>0</tilted></_>
    <_>
      <rects>
        <_>
          4 2 10 9 -1.</_>
        <_>
          4 5 10 3 3.</_></rects>
      <tilted>0</tilted></_>
    <_>
      <rects>
        <_>
          4 3 1 6 -1.</_>
        <_>
          4 5 1 2 3.</_></rects>
      <tilted>0</tilted></_>
    <_>
      <rects>
        <_>
          4 3 3 6 -1.</_>
        <_>
          5 3 1 6 3.</_></rects>
      <tilted>0</tilted></_>
    <_>
      <rects>
        <_>
          4 3 8 6 -1.</_>
        <_>
          4 3 4 3 2.</_>
        <_>
          8 6 4 3 2.</_></rects>
      <tilted>0</tilted></_>
    <_>
      <rects>
        <_>
          4 4 2 6 -1.</_>
        <_>
          4 6 2 2 3.</_></rects>
      <tilted>0</tilted></_>
    <_>
      <rects>
        <_>
          4 5 8 2 -1.</_>
        <_>
          4 5 4 1 2.</_>
        <_>
          8 6 4 1 2.</_></rects>
      <tilted>0</tilted></_>
    <_>
      <rects>
        <_>
          4 6 2 1 -1.</_>
        <_>
          5 6 1 1 2.</_></rects>
      <tilted>0</tilted></_>
    <_>
      <rects>
        <_>
          4 9 8 3 -1.</_>
        <_>
          4 10 8 1 3.</_></rects>
      <tilted>0</tilted></_>
    <_>
      <rects>
        <_>
          5 0 6 12 -1.</_>
        <_>
          7 0 2 12 3.</_></rects>
      <tilted>0</tilted></_>
    <_>
      <rects>
        <_>
          5 0 5 3 -1.</_>
        <_>
          5 1 5 1 3.</_></rects>
      <tilted>0</tilted></_>
    <_>
      <rects>
        <_>
          5 0 10 6 -1.</_>
        <_>
          5 0 5 3 2.</_>
        <_>
          10 3 5 3 2.</_></rects>
      <tilted>0</tilted></_>
    <_>
      <rects>
        <_>
          5 0 6 12 -1.</_>
        <_>
          5 4 6 4 3.</_></rects>
      <tilted>0</tilted></_>
    <_>
      <rects>
        <_>
          5 1 1 9 -1.</_>
        <_>
          5 4 1 3 3.</_></rects>
      <tilted>0</tilted></_>
    <_>
      <rects>
        <_>
          5 5 6 1 -1.</_>
        <_>
          8 5 3 1 2.</_></rects>
      <tilted>0</tilted></_>
    <_>
      <rects>
        <_>
          5 9 4 3 -1.</_>
        <_>
          5 10 4 1 3.</_></rects>
      <tilted>0</tilted></_>
    <_>
      <rects>
        <_>
          5 10 4 2 -1.</_>
        <_>
          5 11 4 1 2.</_></rects>
      <tilted>0</tilted></_>
    <_>
      <rects>
        <_>
          6 0 4 12 -1.</_>
        <_>
          6 4 4 4 3.</_></rects>
      <tilted>0</tilted></_>
    <_>
      <rects>
        <_>
          6 2 5 3 -1.</_>
        <_>
          6 3 5 1 3.</_></rects>
      <tilted>0</tilted></_>
    <_>
      <rects>
        <_>
          6 4 1 3 -1.</_>
        <_>
          6 5 1 1 3.</_></rects>
      <tilted>0</tilted></_>
    <_>
      <rects>
        <_>
          6 10 10 2 -1.</_>
        <_>
          6 11 10 1 2.</_></rects>
      <tilted>0</tilted></_>
    <_>
      <rects>
        <_>
          7 0 1 9 -1.</_>
        <_>
          7 3 1 3 3.</_></rects>
      <tilted>0</tilted></_>
    <_>
      <rects>
        <_>
          7 0 4 2 -1.</_>
        <_>
          7 1 4 1 2.</_></rects>
      <tilted>0</tilted></_>
    <_>
      <rects>
        <_>
          7 0 8 6 -1.</_>
        <_>
          7 0 4 3 2.</_>
        <_>
          11 3 4 3 2.</_></rects>
      <tilted>0</tilted></_>
    <_>
      <rects>
        <_>
          7 2 1 2 -1.</_>
        <_>
          7 3 1 1 2.</_></rects>
      <tilted>0</tilted></_>
    <_>
      <rects>
        <_>
          7 2 3 10 -1.</_>
        <_>
          8 2 1 10 3.</_></rects>
      <tilted>0</tilted></_>
    <_>
      <rects>
        <_>
          7 3 2 9 -1.</_>
        <_>
          7 6 2 3 3.</_></rects>
      <tilted>0</tilted></_>
    <_>
      <rects>
        <_>
          7 4 2 1 -1.</_>
        <_>
          8 4 1 1 2.</_></rects>
      <tilted>0</tilted></_>
    <_>
      <rects>
        <_>
          7 4 1 3 -1.</_>
        <_>
          7 5 1 1 3.</_></rects>
      <tilted>0</tilted></_>
    <_>
      <rects>
        <_>
          7 4 6 4 -1.</_>
        <_>
          7 4 3 2 2.</_>
        <_>
          10 6 3 2 2.</_></rects>
      <tilted>0</tilted></_>
    <_>
      <rects>
        <_>
          7 5 1 3 -1.</_>
        <_>
          7 6 1 1 3.</_></rects>
      <tilted>0</tilted></_>
    <_>
      <rects>
        <_>
          7 5 1 6 -1.</_>
        <_>
          7 7 1 2 3.</_></rects>
      <tilted>0</tilted></_>
    <_>
      <rects>
        <_>
          7 6 3 5 -1.</_>
        <_>
          8 6 1 5 3.</_></rects>
      <tilted>0</tilted></_>
    <_>
      <rects>
        <_>
          7 6 2 6 -1.</_>
        <_>
          7 8 2 2 3.</_></rects>
      <tilted>0</tilted></_>
    <_>
      <rects>
        <_>
          7 6 8 6 -1.</_>
        <_>
          7 6 4 3 2.</_>
        <_>
          11 9 4 3 2.</_></rects>
      <tilted>0</tilted></_>
    <_>
      <rects>
        <_>
          7 8 1 2 -1.</_>
        <_>
          7 9 1 1 2.</_></rects>
      <tilted>0</tilted></_>
    <_>
      <rects>
        <_>
          7 8 6 4 -1.</_>
        <_>
          7 8 3 2 2.</_>
        <_>
          10 10 3 2 2.</_></rects>
      <tilted>0</tilted></_>
    <_>
      <rects>
        <_>
          8 0 4 2 -1.</_>
        <_>
          8 1 4 1 2.</_></rects>
      <tilted>0</tilted></_>
    <_>
      <rects>
        <_>
          8 1 2 2 -1.</_>
        <_>
          8 2 2 1 2.</_></rects>
      <tilted>0</tilted></_>
    <_>
      <rects>
        <_>
          8 4 3 1 -1.</_>
        <_>
          9 4 1 1 3.</_></rects>
      <tilted>0</tilted></_>
    <_>
      <rects>
        <_>
          8 4 1 3 -1.</_>
        <_>
          8 5 1 1 3.</_></rects>
      <tilted>0</tilted></_>
    <_>
      <rects>
        <_>
          8 5 6 3 -1.</_>
        <_>
          8 6 6 1 3.</_></rects>
      <tilted>0</tilted></_>
    <_>
      <rects>
        <_>
          8 10 4 2 -1.</_>
        <_>
          8 11 4 1 2.</_></rects>
      <tilted>0</tilted></_>
    <_>
      <rects>
        <_>
          9 3 1 9 -1.</_>
        <_>
          9 6 1 3 3.</_></rects>
      <tilted>0</tilted></_>
    <_>
      <rects>
        <_>
          9 4 3 6 -1.</_>
        <_>
          9 6 3 2 3.</_></rects>
      <tilted>0</tilted></_>
    <_>
      <rects>
        <_>
          9 6 1 2 -1.</_>
        <_>
          9 7 1 1 2.</_></rects>
      <tilted>0</tilted></_>
    <_>
      <rects>
        <_>
          9 6 3 1 -1.</_>
        <_>
          10 6 1 1 3.</_></rects>
      <tilted>0</tilted></_>
    <_>
      <rects>
        <_>
          10 0 6 4 -1.</_>
        <_>
          10 2 6 2 2.</_></rects>
      <tilted>0</tilted></_>
    <_>
      <rects>
        <_>
          10 1 1 9 -1.</_>
        <_>
          10 4 1 3 3.</_></rects>
      <tilted>0</tilted></_>
    <_>
      <rects>
        <_>
          10 1 4 6 -1.</_>
        <_>
          10 1 2 3 2.</_>
        <_>
          12 4 2 3 2.</_></rects>
      <tilted>0</tilted></_>
    <_>
      <rects>
        <_>
          10 2 2 6 -1.</_>
        <_>
          10 4 2 2 3.</_></rects>
      <tilted>0</tilted></_>
    <_>
      <rects>
        <_>
          10 3 6 6 -1.</_>
        <_>
          12 3 2 6 3.</_></rects>
      <tilted>0</tilted></_>
    <_>
      <rects>
        <_>
          10 4 3 4 -1.</_>
        <_>
          11 4 1 4 3.</_></rects>
      <tilted>0</tilted></_>
    <_>
      <rects>
        <_>
          10 4 2 6 -1.</_>
        <_>
          11 4 1 6 2.</_></rects>
      <tilted>0</tilted></_>
    <_>
      <rects>
        <_>
          10 4 6 5 -1.</_>
        <_>
          12 4 2 5 3.</_></rects>
      <tilted>0</tilted></_>
    <_>
      <rects>
        <_>
          10 5 2 1 -1.</_>
        <_>
          11 5 1 1 2.</_></rects>
      <tilted>0</tilted></_>
    <_>
      <rects>
        <_>
          10 5 3 2 -1.</_>
        <_>
          11 5 1 2 3.</_></rects>
      <tilted>0</tilted></_>
    <_>
      <rects>
        <_>
          10 6 3 6 -1.</_>
        <_>
          10 8 3 2 3.</_></rects>
      <tilted>0</tilted></_>
    <_>
      <rects>
        <_>
          10 7 4 4 -1.</_>
        <_>
          10 7 2 2 2.</_>
        <_>
          12 9 2 2 2.</_></rects>
      <tilted>0</tilted></_>
    <_>
      <rects>
        <_>
          10 8 4 4 -1.</_>
        <_>
          10 8 2 2 2.</_>
        <_>
          12 10 2 2 2.</_></rects>
      <tilted>0</tilted></_>
    <_>
      <rects>
        <_>
          10 9 4 2 -1.</_>
        <_>
          10 9 2 1 2.</_>
        <_>
          12 10 2 1 2.</_></rects>
      <tilted>0</tilted></_>
    <_>
      <rects>
        <_>
          11 0 4 4 -1.</_>
        <_>
          11 0 2 2 2.</_>
        <_>
          13 2 2 2 2.</_></rects>
      <tilted>0</tilted></_>
    <_>
      <rects>
        <_>
          11 2 2 4 -1.</_>
        <_>
          11 2 1 2 2.</_>
        <_>
          12 4 1 2 2.</_></rects>
      <tilted>0</tilted></_>
    <_>
      <rects>
        <_>
          12 0 4 6 -1.</_>
        <_>
          12 0 2 3 2.</_>
        <_>
          14 3 2 3 2.</_></rects>
      <tilted>0</tilted></_>
    <_>
      <rects>
        <_>
          13 10 2 1 -1.</_>
        <_>
          14 10 1 1 2.</_></rects>
      <tilted>0</tilted></_>
    <_>
      <rects>
        <_>
          14 0 2 1 -1.</_>
        <_>
          15 0 1 1 2.</_></rects>
      <tilted>0</tilted></_>
    <_>
      <rects>
        <_>
          14 0 2 3 -1.</_>
        <_>
          15 0 1 3 2.</_></rects>
      <tilted>0</tilted></_>
    <_>
      <rects>
        <_>
          14 0 1 12 -1.</_>
        <_>
          14 6 1 6 2.</_></rects>
      <tilted>0</tilted></_>
    <_>
      <rects>
        <_>
          14 0 2 12 -1.</_>
        <_>
          14 0 1 6 2.</_>
        <_>
          15 6 1 6 2.</_></rects>
      <tilted>0</tilted></_>
    <_>
      <rects>
        <_>
          14 0 2 2 -1.</_>
        <_>
          14 1 2 1 2.</_></rects>
      <tilted>0</tilted></_>
    <_>
      <rects>
        <_>
          14 0 2 9 -1.</_>
        <_>
          14 3 2 3 3.</_></rects>
      <tilted>0</tilted></_>
    <_>
      <rects>
        <_>
          14 3 2 6 -1.</_>
        <_>
          14 6 2 3 2.</_></rects>
      <tilted>0</tilted></_>
    <_>
      <rects>
        <_>
          14 10 2 2 -1.</_>
        <_>
          14 11 2 1 2.</_></rects>
      <tilted>0</tilted></_>
    <_>
      <rects>
        <_>
          14 11 2 1 -1.</_>
        <_>
          15 11 1 1 2.</_></rects>
      <tilted>0</tilted></_>
    <_>
      <rects>
        <_>
          15 0 1 12 -1.</_>
        <_>
          15 4 1 4 3.</_></rects>
      <tilted>0</tilted></_>
    <_>
      <rects>
        <_>
          15 0 1 12 -1.</_>
        <_>
          15 6 1 6 2.</_></rects>
      <tilted>0</tilted></_>
    <_>
      <rects>
        <_>
          15 1 1 6 -1.</_>
        <_>
          15 3 1 2 3.</_></rects>
      <tilted>0</tilted></_>
    <_>
      <rects>
        <_>
          15 3 1 9 -1.</_>
        <_>
          15 6 1 3 3.</_></rects>
      <tilted>0</tilted></_>
    <_>
      <rects>
        <_>
          15 5 1 6 -1.</_>
        <_>
          15 7 1 2 3.</_></rects>
      <tilted>0</tilted></_>
    <_>
      <rects>
        <_>
          15 8 1 2 -1.</_>
        <_>
          15 9 1 1 2.</_></rects>
      <tilted>0</tilted></_>
    <_>
      <rects>
        <_>
          15 8 1 4 -1.</_>
        <_>
          15 10 1 2 2.</_></rects>
      <tilted>0</tilted></_>
    <_>
      <rects>
        <_>
          15 9 1 2 -1.</_>
        <_>
          15 10 1 1 2.</_></rects>
      <tilted>0</tilted></_></features></cascade>
</opencv_storage>
